svm_type c_svc
kernel_type rbf
gamma 0.333333
nr_class 2
total_sv 32
rho 0.00574294
label 1 -1
nr_sv 16 16
SV
1 1:0.772549 2:0.368627 3:0.34902 
1 1:0.768627 2:0.368627 3:0.34902 
1 1:0.752941 2:0.356863 3:0.317647 
1 1:0.772549 2:0.368627 3:0.341176 
1 1:0.768627 2:0.372549 3:0.341176 
0.8452581659027851 1:0.764706 2:0.360784 3:0.32549 
1 1:0.760784 2:0.337255 3:0.337255 
1 1:0.756863 2:0.345098 3:0.321569 
1 1:0.756863 2:0.333333 3:0.333333 
1 1:0.756863 2:0.32549 3:0.337255 
1 1:0.756863 2:0.34902 3:0.313725 
1 1:0.760784 2:0.356863 3:0.329412 
1 1:0.764706 2:0.368627 3:0.337255 
1 1:0.760784 2:0.376471 3:0.333333 
1 1:0.756863 2:0.380392 3:0.32549 
1 1:0.764706 2:0.360784 3:0.32549 
-1 1:0.360784 2:0.47451 3:0.466667 
-1 1:0.364706 2:0.439216 3:0.505882 
-1 1:0.352941 2:0.431373 3:0.47451 
-1 1:0.384314 2:0.470588 3:0.52549 
-1 1:0.384314 2:0.470588 3:0.52549 
-1 1:0.352941 2:0.431373 3:0.47451 
-1 1:0.360784 2:0.447059 3:0.490196 
-0.8452581659027851 1:0.360784 2:0.458824 3:0.486275 
-1 1:0.352941 2:0.45098 3:0.470588 
-1 1:0.360784 2:0.435294 3:0.494118 
-1 1:0.356863 2:0.431373 3:0.490196 
-1 1:0.360784 2:0.435294 3:0.490196 
-1 1:0.372549 2:0.447059 3:0.501961 
-1 1:0.380392 2:0.466667 3:0.521569 
-1 1:0.372549 2:0.458824 3:0.513725 
-1 1:0.364706 2:0.439216 3:0.505882 
